digraph Tree {
node [shape=box] ;
0 [label=<node &#35;0<br/>x3 &le; 163.5<br/>entropy = 1.0<br/>samples = 90000<br/>value = [45729, 44271]<br/>class = 0>] ;
1 [label=<node &#35;1<br/>x1 &le; 110.5<br/>entropy = 0.701<br/>samples = 48351<br/>value = [9176, 39175]<br/>class = 1>] ;
0 -> 1 [labeldistance=2.5, labelangle=45, headlabel="True"] ;
2 [label=<node &#35;2<br/>x3 &le; 105.5<br/>entropy = 0.957<br/>samples = 24222<br/>value = [9155, 15067]<br/>class = 1>] ;
1 -> 2 ;
3 [label=<node &#35;3<br/>entropy = 0.0<br/>samples = 14904<br/>value = [0, 14904]<br/>class = 1>] ;
2 -> 3 ;
4 [label=<node &#35;4<br/>x2 &le; 59.5<br/>entropy = 0.127<br/>samples = 9318<br/>value = [9155, 163]<br/>class = 0>] ;
2 -> 4 ;
5 [label=<node &#35;5<br/>entropy = 0.292<br/>samples = 117<br/>value = [6, 111]<br/>class = 1>] ;
4 -> 5 ;
6 [label=<node &#35;6<br/>entropy = 0.05<br/>samples = 9201<br/>value = [9149, 52]<br/>class = 0>] ;
4 -> 6 ;
7 [label=<node &#35;7<br/>x1 &le; 124.5<br/>entropy = 0.01<br/>samples = 24129<br/>value = [21, 24108]<br/>class = 1>] ;
1 -> 7 ;
8 [label=<node &#35;8<br/>x3 &le; 155.0<br/>entropy = 0.213<br/>samples = 620<br/>value = [21, 599]<br/>class = 1>] ;
7 -> 8 ;
9 [label=<node &#35;9<br/>entropy = 0.0<br/>samples = 593<br/>value = [0, 593]<br/>class = 1>] ;
8 -> 9 ;
10 [label=<node &#35;10<br/>entropy = 0.764<br/>samples = 27<br/>value = [21, 6]<br/>class = 0>] ;
8 -> 10 ;
11 [label=<node &#35;11<br/>entropy = 0.0<br/>samples = 23509<br/>value = [0, 23509]<br/>class = 1>] ;
7 -> 11 ;
12 [label=<node &#35;12<br/>x2 &le; 100.5<br/>entropy = 0.536<br/>samples = 41649<br/>value = [36553, 5096]<br/>class = 0>] ;
0 -> 12 [labeldistance=2.5, labelangle=-45, headlabel="False"] ;
13 [label=<node &#35;13<br/>x2 &le; 96.5<br/>entropy = 0.058<br/>samples = 2691<br/>value = [18, 2673]<br/>class = 1>] ;
12 -> 13 ;
14 [label=<node &#35;14<br/>entropy = 0.0<br/>samples = 2608<br/>value = [0, 2608]<br/>class = 1>] ;
13 -> 14 ;
15 [label=<node &#35;15<br/>x3 &le; 176.5<br/>entropy = 0.754<br/>samples = 83<br/>value = [18, 65]<br/>class = 1>] ;
13 -> 15 ;
16 [label=<node &#35;16<br/>entropy = 0.89<br/>samples = 26<br/>value = [18, 8]<br/>class = 0>] ;
15 -> 16 ;
17 [label=<node &#35;17<br/>entropy = 0.0<br/>samples = 57<br/>value = [0, 57]<br/>class = 1>] ;
15 -> 17 ;
18 [label=<node &#35;18<br/>x1 &le; 212.5<br/>entropy = 0.336<br/>samples = 38958<br/>value = [36535, 2423]<br/>class = 0>] ;
12 -> 18 ;
19 [label=<node &#35;19<br/>x1 &le; 49.5<br/>entropy = 0.222<br/>samples = 37854<br/>value = [36505, 1349]<br/>class = 0>] ;
18 -> 19 ;
20 [label=<node &#35;20<br/>entropy = 0.923<br/>samples = 444<br/>value = [150, 294]<br/>class = 1>] ;
19 -> 20 ;
21 [label=<node &#35;21<br/>entropy = 0.185<br/>samples = 37410<br/>value = [36355, 1055]<br/>class = 0>] ;
19 -> 21 ;
22 [label=<node &#35;22<br/>x1 &le; 222.5<br/>entropy = 0.18<br/>samples = 1104<br/>value = [30, 1074]<br/>class = 1>] ;
18 -> 22 ;
23 [label=<node &#35;23<br/>entropy = 0.684<br/>samples = 143<br/>value = [26, 117]<br/>class = 1>] ;
22 -> 23 ;
24 [label=<node &#35;24<br/>entropy = 0.039<br/>samples = 961<br/>value = [4, 957]<br/>class = 1>] ;
22 -> 24 ;
}